{
  "oracle": "numpy/scipy",
  "oracle_version": "numpy 2.5.0, scipy 1.18.0",
  "model": "differential-ml",
  "inference_tolerance": 1e-12,
  "input_dim": 2,
  "layers": [
    {
      "w": [
        [
          0.7982392146403252,
          0.4248741390600041
        ],
        [
          -0.7741368421516877,
          -0.5956221977033461
        ],
        [
          0.24518337226064665,
          0.7145980415604096
        ],
        [
          0.8106691077510874,
          0.16729412829888873
        ]
      ],
      "b": [
        0.034191105576433754,
        0.07858065878981876,
        0.014708048221091131,
        -0.13694543018057403
      ]
    },
    {
      "w": [
        [
          0.5986862404040028,
          -0.8172194660751188,
          0.04459069036627279,
          1.1109623169703882
        ],
        [
          0.5980794786243554,
          0.4187598869640154,
          0.5468804617801064,
          0.676727958604795
        ],
        [
          0.4697671783058491,
          0.45505074081241365,
          0.5119510360565088,
          0.5118625796782571
        ]
      ],
      "b": [
        -0.039886154676149595,
        0.14857548080233549,
        0.15849362433471237
      ]
    },
    {
      "w": [
        [
          -0.5041902635694314,
          0.9662448651242962,
          -0.8241811420279948
        ]
      ],
      "b": [
        -0.15967654976339007
      ]
    }
  ],
  "cases": [
    {
      "x": [
        0.5,
        -0.3
      ],
      "y": -0.33611577243644986,
      "dydx": [
        -0.20840229445851066,
        -0.08732201909141363
      ]
    },
    {
      "x": [
        1.2,
        0.8
      ],
      "y": -0.5889324940453904,
      "dydx": [
        -0.26209747188310323,
        -0.06468256246256585
      ]
    },
    {
      "x": [
        -1.0,
        2.0
      ],
      "y": -0.22968786442806377,
      "dydx": [
        -0.12228292775960077,
        -0.03494225077776487
      ]
    },
    {
      "x": [
        0.0,
        0.0
      ],
      "y": -0.26628979553015975,
      "dydx": [
        -0.1685894386942838,
        -0.07444261530360402
      ]
    },
    {
      "x": [
        2.5,
        -1.5
      ],
      "y": -0.7732423405636664,
      "dydx": [
        -0.33798826363369605,
        -0.11553709820628257
      ]
    }
  ],
  "accuracy": {
    "spec": {
      "spot": 100.0,
      "strike": 100.0,
      "rate": 0.05,
      "vol": 0.2,
      "maturity": 1.0,
      "option_type": "call"
    },
    "train": {
      "n_samples": 4096,
      "hidden": [
        30,
        30
      ],
      "epochs": 60,
      "spread": 2.0,
      "seed": 1
    },
    "grid": [
      80.0,
      82.5,
      85.0,
      87.5,
      90.0,
      92.5,
      95.0,
      97.5,
      100.0,
      102.5,
      105.0,
      107.5,
      110.0,
      112.5,
      115.0,
      117.5,
      120.0
    ],
    "bs_price": [
      1.8594195728121825,
      2.4739593652729823,
      3.2135985531478717,
      4.084791796798914,
      5.091222078817552,
      6.233808045187423,
      7.510872178352699,
      8.918433458607645,
      10.450583572185565,
      12.099906529370571,
      13.857906267073105,
      15.715413840220933,
      17.66295374059044,
      19.69105662273212,
      21.79051252803113,
      23.952564179735916,
      26.169043946847296
    ],
    "bs_delta": [
      0.2219221296481797,
      0.2703153717728871,
      0.321827472988326,
      0.3753725799769161,
      0.42983173188954316,
      0.4841232157639682,
      0.5372601425532524,
      0.5883921625111701,
      0.6368306511756191,
      0.6820585763116014,
      0.7237274967629351,
      0.7616447709589889,
      0.7957541713095866,
      0.8261128521796524,
      0.8528671466462736,
      0.8762290943280769,
      0.8964550230770805
    ],
    "bands": {
      "price_max_abs": 1.5,
      "price_rmse": 1.0,
      "delta_max_abs": 0.1,
      "delta_rmse": 0.06
    }
  }
}
